27 50
</s> 0.006804 -0.003251 0.008544 0.006609 -0.006033 -0.002130 0.003426 -0.001432 -0.000753 -0.005561 0.009109 0.007008 -0.009581 0.000989 -0.002478 -0.005683 0.007324 -0.005115 0.005063 -0.000058 0.001201 -0.003257 0.006618 -0.000180 0.001458 0.005824 -0.000831 0.008686 0.003379 -0.009317 0.003596 0.004447 0.000249 0.002002 0.008407 0.006077 0.001724 -0.004853 0.008952 0.005500 -0.004800 0.009408 -0.008844 -0.000017 -0.004770 -0.000235 -0.003073 0.004777 0.004535 0.009836 
, 0.122881 -0.459333 0.050523 0.140453 0.485967 0.345677 0.450891 -0.054817 -0.221131 0.188142 -0.000285 -0.468743 -0.326318 -0.046632 0.308856 0.285434 -0.146678 -0.530681 -0.371148 -0.362147 0.259738 0.013582 -0.093946 -0.218807 -0.379587 -0.096561 0.402150 0.219654 0.190785 -0.226353 -0.123620 0.423163 0.072172 -0.219709 0.093902 -0.504489 0.231880 0.157379 -0.088252 0.149366 0.447859 -0.047694 -0.263075 -0.231939 0.305808 0.039620 -0.556715 0.167852 0.092057 -0.175515 
. 0.424970 -0.316885 0.047384 -0.048371 -0.069611 0.140008 0.386222 0.163673 -0.076891 0.155666 0.351990 -0.184033 -0.374905 0.270435 0.457759 0.440849 -0.082441 -0.000971 -0.239743 -0.055587 -0.129522 0.309034 -0.017742 -0.339307 -0.279528 -0.263429 -0.268823 0.177734 0.245655 -0.383347 -0.042331 -0.045112 -0.054399 0.061301 -0.076655 -0.270777 -0.167659 0.023021 0.227131 -0.231602 0.440993 -0.045872 -0.233953 0.080952 0.114235 0.433531 -0.748179 0.084336 -0.433294 -0.021858 
的 0.339796 -0.478518 -0.104296 0.146279 0.480053 0.105434 0.663213 -0.249763 -0.205374 0.324935 0.195629 -0.129486 -0.392853 0.248217 0.476587 0.264626 -0.023523 -0.520659 -0.235444 -0.357766 0.055234 -0.059882 0.027528 -0.107569 -0.510779 -0.146652 0.193774 0.103056 0.136713 -0.252789 -0.197491 0.442889 -0.120325 -0.225002 -0.093580 -0.555472 0.153691 0.357366 0.167180 -0.094275 0.357622 -0.016970 -0.400473 -0.023210 0.131774 0.121778 -0.513545 0.369536 -0.012174 -0.144739 
群 0.554665 -0.392931 0.091203 -0.037737 0.387009 -0.007274 0.252458 -0.147586 -0.175052 0.124407 0.202112 -0.502297 -0.355888 0.086019 0.306693 0.204600 -0.255638 -0.342311 -0.460293 -0.257545 0.022706 -0.087669 0.128380 -0.301908 -0.148878 -0.103855 0.236614 0.226730 0.049340 -0.122479 0.114476 0.395725 0.108517 -0.695807 -0.262627 -0.344679 -0.160330 0.147843 0.346260 0.103380 0.458967 0.122790 -0.523539 -0.037964 -0.054724 -0.103139 -0.443576 0.088340 -0.050708 -0.116636 
。 0.357791 -0.313554 0.140332 0.090406 0.181154 0.303537 0.518985 0.309690 -0.001341 0.230417 -0.105535 -0.193021 -0.635087 -0.067663 0.509889 0.252253 -0.325202 -0.408199 -0.106717 0.047502 0.050965 -0.117925 -0.210207 -0.385742 -0.338825 -0.211928 0.069653 -0.343695 0.263669 -0.057262 -0.413686 0.531522 0.668012 -0.081896 0.241997 -0.189104 0.188416 0.042086 0.138953 0.171410 0.611536 0.188026 -0.122740 0.036678 0.173139 0.393667 -0.516934 -0.067126 -0.211641 -0.050704 
朋友 0.349071 -0.338663 0.092445 -0.036753 0.128300 0.130996 0.377583 0.055418 -0.225608 0.280063 0.287266 -0.091213 -0.246310 0.208969 0.472179 0.412059 -0.118492 -0.255930 -0.308899 0.019721 -0.130068 0.200774 -0.034460 -0.295857 -0.348830 -0.232275 -0.136843 0.218125 0.246239 -0.316797 -0.006527 0.090375 -0.038432 -0.067702 -0.118367 -0.187783 -0.205499 0.108192 0.300796 -0.111028 0.343254 0.011546 -0.358468 0.062107 0.138496 0.269279 -0.676626 0.120093 -0.311240 0.013413 
! 0.217235 -0.521352 -0.168944 0.290531 0.354203 0.294873 0.808077 0.050015 -0.214799 0.056036 0.249816 -0.076789 -0.429697 0.085027 0.282278 -0.263931 -0.236355 -0.387550 -0.486023 -0.046824 0.338080 0.301765 0.211256 -0.335514 -0.362047 -0.233220 0.143718 0.309622 0.473278 0.068033 -0.003343 0.340535 -0.005388 -0.126060 -0.207121 -0.036007 -0.068499 -0.094174 0.395766 0.103690 0.539800 -0.311624 -0.244647 -0.359171 0.206141 0.215604 -0.699834 0.125418 -0.094801 -0.009853 
\ 0.067504 -0.456293 -0.152168 0.117991 0.324617 0.373757 0.450802 0.007687 -0.013493 0.195689 0.447361 -0.376116 -0.146094 0.073471 -0.105204 -0.412841 -0.618812 -0.130138 0.023803 -0.272945 0.370701 0.292627 -0.180576 -0.558495 -0.328331 0.020495 -0.122288 -0.545690 0.084697 -0.012859 0.143576 0.266399 -0.133034 -0.265232 0.133703 -0.572610 0.064117 0.218313 -0.330544 -0.334826 0.603850 0.118072 -0.116809 0.094140 0.537802 0.120432 -0.296483 0.053429 0.203816 0.358213 
同事 0.318792 -0.338099 0.030209 -0.080708 0.105693 0.145939 0.341053 0.100800 -0.228119 0.247508 0.281597 -0.100138 -0.233964 0.239137 0.493685 0.402606 -0.140465 -0.224726 -0.258733 0.070223 -0.126324 0.202823 -0.065888 -0.306542 -0.352586 -0.275668 -0.147529 0.166274 0.281885 -0.323344 -0.030019 0.089050 -0.024618 -0.043882 -0.078706 -0.212103 -0.228675 0.115642 0.290809 -0.090754 0.345065 -0.006277 -0.326319 0.083795 0.099872 0.269681 -0.698220 0.072418 -0.331174 0.053609 
n 0.140444 -0.505877 -0.280545 0.043233 0.201944 0.315500 0.415859 0.041703 -0.070535 0.239219 0.318592 -0.319734 -0.155465 0.050639 0.034097 -0.284466 -0.651185 -0.225734 -0.041110 -0.282169 0.343412 0.202370 -0.190421 -0.515192 -0.297026 0.048623 -0.040135 -0.522365 0.059373 -0.012923 0.089618 0.245985 0.019824 -0.283274 0.089409 -0.576310 0.032515 0.223457 -0.284701 -0.241069 0.591591 0.071959 -0.137323 0.046616 0.494495 0.124850 -0.238890 0.159135 0.227251 0.305928 
交流 0.522561 -0.027670 0.050330 -0.318413 0.118539 0.066939 0.272028 0.170363 -0.424246 0.091143 0.114728 0.035026 -0.343929 -0.211054 0.157634 0.370551 -0.210067 -0.177957 -0.346403 -0.219253 -0.179422 0.033715 0.191708 -0.414022 -0.085676 -0.407597 0.056860 0.376048 0.354740 -0.239450 0.167615 0.581571 -0.153553 -0.258265 0.006366 -0.297366 -0.148605 0.205491 0.002937 -0.057835 0.477838 0.152439 -0.507937 -0.251590 -0.003040 -0.177296 -0.512170 -0.301317 -0.138775 -0.160285 
生活 0.200007 -0.008652 -0.042621 -0.007505 0.111742 -0.051850 0.412318 -0.006133 -0.315741 0.084408 0.266710 -0.240676 -0.197034 0.024978 0.478401 0.343468 0.052817 -0.213088 -0.266340 -0.100133 -0.066734 -0.032709 -0.145971 -0.221199 -0.413952 -0.324891 0.165768 0.088983 0.130700 -0.120148 0.004626 0.292360 0.098576 0.021044 -0.074658 -0.413494 -0.170288 0.214142 0.474899 -0.108435 0.463981 0.016293 -0.463319 -0.068576 0.333091 0.234592 -0.726401 -0.024471 -0.206886 0.221996 
兴趣 0.046720 -0.291074 -0.089373 -0.072461 0.186483 -0.079976 0.461301 0.113325 -0.105552 0.212702 0.125624 -0.187884 -0.365543 0.106266 0.677760 0.298040 0.004856 -0.384805 -0.198718 -0.068666 0.019322 0.104070 0.075224 -0.247098 -0.162926 -0.187320 0.022208 0.096225 0.237121 -0.211358 -0.009896 0.510729 0.170735 -0.042750 -0.120312 -0.285374 -0.378342 0.105827 0.266908 -0.189696 0.342939 0.003818 -0.476254 0.088810 -0.022335 0.176253 -0.633901 -0.080683 -0.077086 0.318645 
爱好 0.044710 -0.304653 -0.083079 -0.094191 0.165501 -0.095046 0.481715 0.131946 -0.120370 0.213085 0.133477 -0.200439 -0.363222 0.105577 0.703826 0.293306 -0.003717 -0.398755 -0.200550 -0.042736 0.031074 0.104215 0.063829 -0.248752 -0.164486 -0.199688 0.026287 0.090574 0.224062 -0.222579 -0.017313 0.487661 0.181610 -0.004771 -0.086689 -0.308070 -0.383121 0.095963 0.284807 -0.203033 0.308051 -0.016755 -0.529958 0.078827 -0.016505 0.154614 -0.619795 -0.069586 -0.072147 0.361577 
、 0.357595 -0.504030 0.081236 -0.391549 0.203658 0.383174 0.205190 0.334591 -0.392657 -0.006546 -0.186305 -0.530545 -0.082594 -0.051942 0.163522 0.678451 -0.034248 -0.318837 -0.245914 -0.282631 0.122862 0.257925 -0.126791 -0.427891 0.031257 -0.226245 0.043203 -0.065712 -0.238024 0.058173 -0.440580 0.222511 -0.127241 -0.132082 0.194244 -0.863198 -0.071776 0.283845 -0.090121 -0.181080 0.337690 0.020470 -0.194597 0.077404 0.183985 -0.140213 -0.474704 0.070030 -0.147765 0.016565 
是 0.279510 -0.476339 -0.096910 0.106189 0.395710 0.076745 0.551053 -0.138029 -0.343686 0.203989 0.050875 -0.239009 -0.090909 0.116183 0.444780 0.324403 -0.140769 -0.663833 -0.163459 -0.272696 -0.168394 -0.335704 0.085622 -0.256833 -0.318228 -0.097542 0.047602 -0.002733 0.215371 -0.521449 -0.034064 0.274030 0.082393 -0.116631 -0.224105 -0.331457 0.330621 0.083436 0.247803 0.101675 0.412746 0.100554 -0.576949 0.014292 0.125344 -0.015410 -0.522411 0.473805 0.278597 0.152024 
休闲 0.192843 -0.021393 0.023899 -0.061915 0.048103 -0.057908 0.328217 -0.014763 -0.299706 0.058368 0.249005 -0.248492 -0.137467 0.034800 0.506681 0.355990 0.023316 -0.221956 -0.229443 -0.087549 -0.036748 -0.036416 -0.151890 -0.238544 -0.352769 -0.372440 0.162606 0.134733 0.142642 -0.133351 -0.011231 0.304113 0.107709 -0.033024 -0.081780 -0.357872 -0.190660 0.209909 0.545689 -0.129254 0.453982 0.057315 -0.468637 -0.079983 0.310030 0.266614 -0.736875 -0.055938 -0.207478 0.269799 
: -0.160544 -0.472294 0.014562 -0.191318 0.210263 -0.152825 0.166783 -0.000453 -0.032936 0.123527 0.271805 -0.415347 0.333030 0.177411 -0.195960 -0.193068 -0.577115 -0.518459 -0.108278 0.158712 0.279818 -0.185902 -0.008508 -0.582702 0.049496 0.295056 0.054053 -0.494421 -0.183703 0.215487 0.132164 0.275014 -0.176529 -0.466912 -0.087176 -0.402072 0.040820 0.326442 -0.240834 -0.450614 0.300487 0.102458 -0.159351 0.322909 0.606820 0.301255 -0.333537 -0.259536 -0.044096 -0.272331 
/ -0.601569 -0.403276 -0.251729 -0.295679 0.253621 0.259205 0.553594 0.193130 -0.189987 -0.263333 0.330415 -0.045257 0.043907 -0.193112 0.130996 -0.252706 -0.484524 -0.080939 -0.649273 0.051481 -0.048387 -0.604324 0.162376 -0.224750 -0.149555 0.187922 -0.358164 -0.356382 -0.238290 0.372161 -0.070023 0.143703 -0.171782 -0.441041 -0.516814 -0.292059 -0.012095 -0.132301 -0.522495 -0.445703 0.326960 0.302377 -0.410690 0.478668 0.638100 0.874450 -0.936408 -0.574923 0.064024 -0.033999 
游戏 0.011114 -0.415771 -0.162877 -0.119509 0.436683 -0.328078 0.323120 -0.013314 -0.260408 0.158541 0.363986 -0.077297 -0.641082 -0.025037 0.501230 0.374498 -0.170148 -0.528210 -0.161071 -0.204316 0.163295 0.166594 -0.100876 -0.531508 -0.248982 -0.287269 -0.175092 -0.033288 0.134971 -0.332571 -0.182319 0.100368 0.147797 -0.468682 -0.256831 -0.267106 -0.032639 -0.086305 0.335874 -0.235300 0.343597 0.184092 -0.336986 -0.076686 0.088060 0.083064 -0.477001 -0.319687 -0.218492 0.058946 
我 0.320553 -0.767651 0.125054 -0.092251 0.217594 -0.047437 0.426698 -0.365075 -0.085013 0.138047 0.296174 -0.153931 -0.298067 0.224103 0.469614 0.183974 0.196603 -0.584525 -0.304161 -0.206188 0.157568 -0.049609 -0.252091 -0.274922 -0.525778 -0.071441 -0.219699 0.116120 0.260004 -0.334021 -0.433228 0.383499 -0.010499 -0.103144 -0.196095 -0.271930 0.059386 -0.175398 -0.050287 -0.032098 0.597453 0.071262 -0.461254 -0.260781 0.163416 0.391493 -0.393227 0.555452 0.294132 0.103952 
大家 0.342832 -0.303912 -0.095749 0.031480 0.263429 0.082884 0.941432 -0.188153 -0.233852 0.274164 0.200895 -0.377769 -0.651155 -0.200764 0.116353 0.132380 0.043914 -0.703085 -0.208956 -0.366009 0.117281 0.114039 0.153790 -0.180212 -0.486717 -0.190801 0.341961 -0.046473 0.045591 -0.075250 0.245206 0.191054 0.069869 -0.511528 -0.079464 -0.129048 0.045424 0.124870 0.014666 0.187063 0.785757 -0.052273 -0.332162 -0.247725 0.232851 0.046495 -0.661716 -0.055153 0.191911 -0.556355 
不 0.308097 -0.487764 0.023043 0.494131 0.214231 0.177037 0.130987 0.066631 0.212621 0.330713 0.360713 -0.890134 -0.264714 -0.039852 0.384925 0.214281 -0.168478 -0.714369 -0.396254 -0.238146 0.349435 0.092285 -0.342040 -0.142375 -0.390090 -0.303687 0.187955 0.336861 0.420752 -0.326783 -0.439075 0.605139 0.454459 -0.090382 -0.177725 -0.631261 0.167278 0.055204 -0.126504 -0.135409 0.576113 -0.028860 -0.325169 0.005564 0.136996 0.225702 -0.712170 0.286769 0.159890 -0.038347 
行业 0.326178 -0.078676 0.041963 -0.264842 0.036585 0.139301 0.171436 0.129371 -0.364146 0.081699 0.186862 0.038061 -0.174475 0.103256 0.092163 0.331409 -0.265243 -0.157572 -0.387090 -0.205581 -0.083824 0.017340 0.080383 -0.448486 -0.146845 -0.442495 -0.094077 0.351033 0.470571 -0.231181 0.103886 0.539941 -0.186831 -0.082493 -0.069008 -0.174003 -0.232188 0.229372 -0.019055 -0.029473 0.476944 0.129829 -0.536535 -0.255638 0.003983 -0.105464 -0.575379 -0.227555 -0.189016 -0.001496 
你 0.121890 -0.569132 0.007502 -0.050367 0.099461 0.138349 0.366462 -0.184587 -0.044466 -0.008962 0.461240 -0.084377 -0.443059 0.152153 0.569185 0.269692 0.181978 -0.591066 -0.409910 -0.267050 0.233464 -0.214833 -0.348022 -0.296950 -0.623866 -0.168302 -0.018518 -0.188664 0.340846 -0.396499 -0.437023 0.663221 -0.166676 0.089670 -0.036949 -0.491629 0.088191 -0.007115 0.039499 -0.077221 0.528769 -0.170120 -0.452625 -0.208420 0.197422 0.365204 -0.363109 0.493750 0.416925 0.024006 
我们 0.379672 -0.449175 -0.019531 0.213310 0.227346 0.295626 0.620444 -0.023330 -0.167231 0.388350 0.262219 0.054415 -0.307413 -0.090504 0.513933 0.195378 0.126484 -0.644101 -0.110942 -0.255758 -0.098974 -0.267939 0.064116 -0.091081 -0.631678 -0.229712 0.111338 -0.027500 0.206938 -0.352648 -0.118205 0.050202 0.055489 -0.236055 -0.114629 -0.701772 0.428995 0.190980 -0.004322 0.022680 0.419770 -0.247698 -0.345994 -0.050128 0.261408 -0.072495 -0.851406 0.504000 -0.106139 0.242916 
